0.014619
0.004039
-0.016636
-0.045503
-0.009381
-0.060050
0.057389
-0.026060
0.042181
0.060264
0.056617
-0.051173
0.007718
-0.063574
0.006511
-0.000288
0.025370
-0.001596
-0.028956
0.037888
0.030692
-0.055569
-0.000049
-0.044855
0.036205
-0.007632
0.002323
0.007422
0.064846
0.048814
-0.027667
0.025855
0.004464
0.021100
-0.003296
0.005527
0.026276
-0.022141
0.011640
-0.055489
0.035268
0.016024
-0.061749
0.061765
-0.051965
-0.035172
-0.027862
0.029840
0.044255
-0.056042
0.043299
-0.065274
-0.015989
0.031265
-0.033178
-0.064191
0.009408
0.002479
0.038309
0.009257
-0.063535
-0.039240
-0.045413
-0.058232
-0.056878
0.040227
0.050468
-0.051577
0.014774
0.014655
0.067744
-0.025035
-0.045670
0.016075
-0.051413
-0.038133
-0.056462
0.009977
0.001290
-0.000955
-0.038847
-0.039804
0.034517
0.026051
0.010424
0.055093
-0.066699
0.068185
-0.002109
-0.039609
-0.026589
-0.014883
0.012654
-0.052478
0.010629
-0.034987
-0.025754
0.054582
-0.049906
-0.034735
-0.045809
0.064827
0.019898
-0.051527
0.047771
-0.059212
-0.035678
-0.028482
-0.000425
0.023998
-0.021990
0.021747
0.059033
-0.027451
-0.000996
-0.061260
0.050339
-0.002903
-0.023535
-0.066981
0.061664
0.017999
0.045790
0.014007
-0.022533
0.053908
-0.039605
0.003691
-0.017002
-0.059289
0.048442
-0.041929
-0.035399
-0.025702
-0.029309
-0.043915
0.007807
0.006962
0.035441
0.063669
-0.054767
0.023064
0.020660
0.038903
0.045628
0.001405
0.002991
-0.014559
-0.008673
-0.009723
-0.024923
-0.056697
-0.043052
0.012589
0.058912
-0.009518
-0.052036
-0.048105
0.012806
-0.021678
0.048037
-0.019027
-0.008210
-0.050918
-0.055847
-0.022636
0.020887
-0.022779
-0.005640
0.049830
0.019613
-0.012831
0.059317
-0.050436
0.020545
0.014341
-0.014789
0.036215
-0.059878
0.042582
-0.019227
0.018332
0.025357
-0.007453
0.038887
0.061369
-0.031297
-0.042585
0.008069
-0.019896
0.004277
-0.043113
-0.019561
-0.015502
0.063443
-0.058837
-0.041685
0.062443
0.061379
-0.039019
-0.009196
-0.041231
0.013678
-0.001970
-0.062995
0.042897
0.033038
0.018014
0.032357
0.012494
-0.048870
0.062453
-0.065138
0.031761
0.020224
-0.061820
0.013493
0.008225
0.048288
0.016178
0.014432
-0.041297
-0.055663
0.042891
-0.042032
-0.037969
-0.021689
0.059689
-0.020005
-0.012509
0.001394
0.026973
0.003713
-0.055843
-0.011194
-0.047372
-0.037382
-0.027030
0.005332
0.041046
-0.065682
-0.051184
-0.049832
0.016617
0.008177
0.021086
-0.051268
0.032146
-0.014134
-0.004330
-0.022018
-0.008834
0.038741
-0.021441
-0.029417
-0.053079
0.057318
-0.046316
0.019266
0.034173
0.042447
0.030010
0.046294
-0.040028
-0.011201
0.047104
-0.038684
-0.015273
0.053915
-0.041973
-0.050478
0.035341
-0.059257
-0.027028
0.029692
0.037533
0.007529
0.000370
0.024430
-0.011037
0.017977
-0.023107
-0.001981
-0.066147
-0.058424
-0.023321
0.056006
-0.040855
-0.026230
0.043880
-0.063006
0.033906
0.038181
0.008257
0.009791
-0.042110
0.053326
0.035485
-0.049301
-0.056408
0.060274
0.035608
-0.022665
-0.042734
-0.008578
0.007286
-0.021487
-0.057050
0.057522
0.061813
-0.058307
-0.026402
0.013472
0.023535
0.061433
0.066774
0.026542
-0.037655
0.056894
-0.049681
-0.064771
0.057262
0.001491
0.065635
0.067807
0.055811
-0.026070
0.049417
-0.058681
-0.060626
-0.016736
-0.028139
0.033291
0.039285
0.007344
-0.001733
-0.053473
-0.005841
-0.053131
-0.065271
-0.046728
-0.052339
-0.018279
0.042949
-0.011449
-0.035720
-0.019261
0.023307
-0.005214
-0.032606
0.043980
0.061389
0.020053
-0.023460
0.050650
0.056655
0.036011
0.055544
-0.043489
-0.011755
0.030380
-0.035061
0.015625
0.066468
0.050120
0.030229
-0.026305
-0.050744
0.048182
-0.029391
-0.022073
0.013388
-0.016617
-0.015311
0.042303
0.009074
0.059006
0.021019
0.033012
0.058644
0.054089
0.048226
0.012947
-0.039457
0.047269
-0.067182
-0.031521
0.039406
0.063685
0.067204
0.061144
0.028177
0.028674
0.011833
0.027523
0.022332
0.012753
-0.024817
0.010274
-0.043800
-0.036327
0.040541
-0.011714
-0.027315
0.016263
-0.010240
0.067131
-0.008863
-0.036315
0.038424
-0.067729
-0.054726
0.065458
0.042914
0.018436
-0.012349
0.021311
0.015173
-0.057934
-0.006607
0.055573
0.023895
-0.017776
0.020216
-0.037736
-0.043655
-0.032123
-0.053026
0.044640
-0.009683
0.044682
-0.055043
0.052442
0.041022
0.063027
-0.049268
-0.027895
-0.013074
-0.024491
-0.029977
-0.021726
0.049739
-0.021547
0.002893
-0.056168
-0.013249
0.064883
0.010247
-0.003981
-0.049873
-0.041526
-0.007692
-0.023464
-0.038890
0.000018
0.030155
0.017518
-0.062471
-0.003827
-0.054143
0.047837
-0.012158
0.062111
-0.059402
0.056698
-0.054643
0.018729
-0.055979
-0.010587
0.020085
-0.054146
-0.003782
-0.022383
-0.030556
-0.046827
0.029885
-0.003455
-0.054002
0.021788
-0.038182
0.021481
-0.006908
-0.036402
0.023076
-0.061828
-0.006780
0.059544
0.004073
-0.035242
0.028509
0.019793
-0.007512
0.059739
-0.000052
0.059858
-0.016257
0.059224
-0.014574
0.056957
0.058996
-0.051497
0.049314
0.027086
-0.053649
-0.036141
-0.010004
0.026607
0.058580
-0.038866
-0.018205
-0.060804
0.002551
-0.013558
-0.027108
0.019262
0.028972
-0.026401
-0.049493
-0.026431
-0.034100
0.025837
0.033197
-0.034113
0.022042
-0.004545
-0.029963
-0.013584
-0.000242
-0.032493
0.064330
0.007666
0.067379
-0.056755
0.019155
0.027004
-0.029765
0.016379
-0.033633
0.042880
-0.006860
0.058962
-0.047370
-0.041113
-0.011597
-0.042261
0.049644
0.021087
0.018866
-0.014546
0.052336
-0.017793
0.014938
0.062490
0.044804
-0.033692
-0.008283
0.016453
0.023853
0.044588
0.036198
0.037160
0.022047
0.064430
0.051027
0.029797
0.018316
0.032753
-0.065931
-0.050554
0.037837
-0.002232
0.039178
0.029823
0.056534
0.005993
0.016035
0.009922
-0.017909
-0.056567
0.010538
0.002820
0.011213
-0.014067
-0.053258
0.067407
0.035590
-0.017568
-0.053132
0.052397
-0.034449
0.027349
0.045360
-0.003726
0.007530
0.017176
-0.021369
-0.003526
0.053051
-0.040053
-0.009646
0.053454
0.033459
0.040871
-0.002340
0.047985
-0.006353
0.059328
0.049951
0.066491
0.047369
0.012592
-0.012052
-0.032172
0.016387
-0.018457
0.033382
-0.058395
-0.032867
0.051779
0.027864
-0.021964
-0.027798
0.026972
-0.056970
0.018953
-0.038381
0.039327
-0.038178
0.052340
-0.057635
-0.025254
0.048850
0.013354
-0.033173
0.066428
0.028622
0.062276
-0.036883
0.051547
-0.023409
0.004453
0.057653
0.008324
-0.027261
0.024951
0.040566
-0.005634
0.066355
-0.030608
0.044799
-0.015962
-0.035623
-0.012157
-0.066487
-0.038960
0.068421
0.061916
-0.040259
-0.064032
0.009605
0.006001
0.053297
-0.031386
-0.050565
0.067448
0.036493
-0.031611
-0.012229
-0.021009
-0.044336
0.037098
-0.019211
-0.064681
0.023783
0.061797
-0.025062
0.066076
-0.022743
0.045583
0.001847
-0.042039
0.010484
0.010978
0.028809
-0.055045
-0.033832
-0.007709
-0.019674
-0.025155
-0.047187
-0.003668
0.020437
-0.007804
0.060802
0.015434
-0.058140
-0.019208
-0.015185
-0.002554
-0.061811
0.031399
-0.043399
-0.003275
-0.038223
-0.019268
-0.046887
-0.056870
-0.000810
0.027775
-0.065703
-0.012329
-0.068233
-0.015018
0.026832
-0.014539
0.038240
-0.012713
-0.028802
-0.017687
0.022983
-0.005447
0.003242
-0.061401
-0.021408
-0.060296
-0.032762
-0.020759
0.019188
-0.059134
0.065196
-0.040148
0.029949
-0.016537
-0.067580
0.030087
-0.036368
-0.004000
-0.051363
0.054844
0.067361
0.017900
-0.046052
0.021482
0.035150
-0.053317
0.003204
-0.019462
0.059056
-0.015180
0.024634
-0.050471
0.024357
0.022295
0.018999
0.049808
0.048583
-0.049986
0.005716
-0.046022
-0.059865
-0.065224
-0.002897
0.006643
-0.048379
-0.066679
-0.044044
0.014935
-0.001155
0.008288
-0.041880
-0.035710
0.065038
-0.048971
-0.041195
-0.037972
0.047860
0.020229
-0.009095
0.016399
-0.033523
0.020786
-0.051445
-0.018877
-0.068305
0.060673
0.054968
0.048045
0.043224
-0.012665
-0.046078
-0.026433
0.001937
0.059327
0.048889
-0.030026
0.028001
0.055947
-0.067073
-0.003656
0.066842
-0.001825
0.010477
-0.031498
0.041891
0.037846
0.003145
0.053456
-0.067078
-0.011203
-0.051369
-0.014690
0.034094
0.055201
0.018953
0.060344
-0.067225
0.053607
-0.012765
-0.020984
-0.038209
-0.015106
0.053889
-0.016352
-0.044778
-0.019863
0.012678
-0.061868
0.048173
-0.027829
0.043775
-0.051313
0.059855
-0.062939
0.057462
0.003572
-0.041366
-0.011706
0.011015
-0.028133
-0.051228
-0.039134
-0.045397
-0.057487
-0.005433
0.063225
0.045440
0.066415
0.049419
-0.013453
0.013476
-0.058846
0.019512
-0.066604
-0.048281
-0.009223
0.033001
0.024117
-0.020289
-0.005371
-0.011172
0.040133
0.000849
0.055448
-0.032020
0.023783
0.013890
-0.006035
0.041400
-0.025795
0.042813
-0.044188
-0.056642
-0.059912
-0.057403
0.054681
-0.065808
-0.011216
-0.038471
-0.014278
-0.032742
-0.059634
0.009255
-0.004101
-0.050322
-0.027108
-0.008363
0.002406
0.059502
0.054578
0.035171
-0.065044
0.048942
-0.023248
-0.066039
-0.047470
0.003712
0.041927
-0.037768
0.010567
0.009891
-0.035630
-0.017904
-0.011965
0.022101
-0.003675
0.025059
-0.046078
-0.066298
-0.055783
0.064475
-0.042093
0.007286
0.021280
-0.034397
-0.053429
0.066852
0.047798
0.068349
0.066273
-0.034807
0.051494
0.034368
-0.003408
0.032266
0.066850
-0.006444
0.037859
0.006037
-0.057405
0.044678
0.040538
-0.066095
-0.018198
-0.051183
-0.067216
0.060680
-0.015359
0.041143
-0.005635
0.004142
-0.035328
-0.016566
-0.043266
-0.008562
-0.051283
-0.065608
0.032843
-0.026807
-0.042839
-0.013528
-0.052728
0.050216
0.048049
-0.010415
0.047619
0.053719
0.009247
-0.022430
-0.034888
0.009232
0.045946
0.064492
-0.053733
-0.016160
-0.025759
0.014513
0.032807
-0.000765
-0.036524
-0.013582
0.001139
-0.063555
0.053537
0.029765
0.058134
-0.023523
0.008703
0.057628
0.043612
0.005918
0.009792
0.001768
-0.010576
-0.038779
0.047292
-0.017332
-0.031387
0.041283
-0.032455
0.038181
0.035479
-0.019777
-0.033989
0.034772
-0.011002
-0.057720
-0.064535
-0.011078
-0.020916
-0.061371
0.063907
0.032378
-0.057537
0.034907
0.001085
-0.028930
0.038475
0.047834
-0.049211
-0.067416
0.037265
-0.032664
0.008069
-0.021993
0.046668
0.046069
-0.068392
0.001578
0.019751
-0.013849
-0.059952
0.013540
0.014146
-0.024040
0.043043
0.035705
-0.037673
-0.000455
-0.007872
0.044029
0.057191
0.020753
0.014276
-0.023597
0.046643
0.006254
-0.010001
-0.037347
0.037251
-0.042686
0.063595
-0.053900
0.010347
0.021081
-0.024794
0.051682
0.056332
0.013595
0.020063
0.032094
-0.035043
-0.013098
0.026188
-0.022232
0.019587
-0.059991
0.032071
0.030896
0.026931
0.030458
0.005332
0.036612
-0.038880
-0.062835
0.006064
-0.019718
-0.051630
0.042630
-0.035894
-0.045684
0.000106
0.009740
-0.003119
-0.031223
-0.019195
-0.053841
-0.011290
0.006643
0.003825
-0.035967
0.024645
-0.040104
0.032171
-0.060658
-0.012545
-0.003005
-0.049747
-0.030292
0.040082
0.025067
-0.028575
0.031110
0.037721
0.002957
-0.003212
-0.059337
-0.030366
0.023554
0.015028
-0.042188
-0.023269
0.043681
0.065756
0.027763
0.068426
-0.029310
-0.044614
0.022521
-0.041995
0.020169
0.032238
-0.059101
0.016714
0.065345
-0.063541
-0.015569
0.018658
-0.042663
0.001918
0.050706
0.059949
0.004022
0.053564
0.062847
-0.027142
-0.008246
0.056327
-0.002490
0.053945
0.023774
0.032736
-0.052376
-0.015804
0.043369
0.048698
0.019355
0.028652
0.066188
0.023187
0.013461
-0.002503
0.025136
0.025524
-0.049799
-0.058377
0.060978
0.057166
0.020569
-0.035092
-0.012525
-0.032558
0.014519
-0.060204
0.057833
-0.008131
-0.052581
-0.021491
0.040624
0.005418
-0.008735
-0.000416
0.063384
0.008746
0.008886
-0.035295
-0.030729
-0.054187
-0.063673
-0.009596
-0.012306
0.010601
0.029108
-0.065921
0.023038
0.048772
0.026600
-0.024284
-0.036408
-0.062034
-0.005641
0.001840
-0.006218
0.012748
0.046655
-0.011249
0.061968
-0.044753
-0.010863
-0.003047
0.033401
0.057172
-0.002570
0.064885
0.030213
-0.037078
0.057541
-0.064854
0.030132
0.004692
-0.067945
0.032391
0.029092
0.015659
-0.067545
0.021435
-0.003787
-0.045613
0.021894
-0.013482
0.066407
-0.056976
-0.010639
0.061495
0.021563
0.024135
0.067884
0.064370
-0.024501
0.006087
-0.006448
0.052849
-0.022859
0.040167
-0.040361
-0.002447
-0.024023
0.044156
-0.027344
0.055361
-0.036161
0.051647
-0.067491
0.000660
0.007766
-0.037570
-0.054815
-0.059999
-0.042512
-0.006451
-0.067982
0.017166
-0.004908
0.066831
0.017457
-0.019226
0.012454
0.002566
0.005941
0.016429
0.001104
-0.044112
-0.006926
0.061960
0.033717
0.021412
0.010159
-0.012174
0.039701
-0.047996
0.026536
-0.066743
0.023348
0.006135
-0.063415
-0.008048
0.016161
0.033758
-0.019440
-0.008298
0.057516
0.058335
-0.024426
-0.045136
0.006541
0.039558
0.002290
0.036187
-0.006258
0.054658
0.064745
